<?xml version="1.0"?>
<opencv_storage>
<cascade>
  <stageType>BOOST</stageType>
  <featureType>HAAR</featureType>
  <height>48</height>
  <width>48</width>
  <stageParams>
    <boostType>GAB</boostType>
    <minHitRate>9.9500000476837158e-01</minHitRate>
    <maxFalseAlarm>5.0000000000000000e-01</maxFalseAlarm>
    <weightTrimRate>9.4999999999999996e-01</weightTrimRate>
    <maxDepth>1</maxDepth>
    <maxWeakCount>100</maxWeakCount></stageParams>
  <featureParams>
    <maxCatCount>0</maxCatCount>
    <featSize>1</featSize>
    <mode>BASIC</mode></featureParams>
  <stageNum>15</stageNum>
  <stages>
    <!-- stage 0 -->
    <_>
      <maxWeakCount>6</maxWeakCount>
      <stageThreshold>-1.0432047843933105e+00</stageThreshold>
      <weakClassifiers>
        <_>
          <internalNodes>
            0 -1 63 -2.6737104635685682e-03</internalNodes>
          <leafValues>
            5.8647596836090088e-01 -8.7577641010284424e-01</leafValues></_>
        <_>
          <internalNodes>
            0 -1 196 1.3620632234960794e-03</internalNodes>
          <leafValues>
            -5.2349323034286499e-01 4.8716428875923157e-01</leafValues></_>
        <_>
          <internalNodes>
            0 -1 52 -3.4183054231107235e-03</internalNodes>
          <leafValues>
            -8.5857659578323364e-01 3.2974505424499512e-01</leafValues></_>
        <_>
          <internalNodes>
            0 -1 80 7.2403326630592346e-03</internalNodes>
          <leafValues>
            2.2036609053611755e-01 -8.9803957939147949e-01</leafValues></_>
        <_>
          <internalNodes>
            0 -1 126 -5.3557874634861946e-03</internalNodes>
          <leafValues>
            -9.0749967098236084e-01 1.7646093666553497e-01</leafValues></_>
        <_>
          <internalNodes>
            0 -1 0 4.4005583040416241e-03</internalNodes>
          <leafValues>
            -3.7050721049308777e-01 5.8463543653488159e-01</leafValues></_></weakClassifiers></_>
    <!-- stage 1 -->
    <_>
      <maxWeakCount>8</maxWeakCount>
      <stageThreshold>-9.2779171466827393e-01</stageThreshold>
      <weakClassifiers>
        <_>
          <internalNodes>
            0 -1 171 1.9606428686529398e-03</internalNodes>
          <leafValues>
            5.1664984226226807e-01 -7.2594749927520752e-01</leafValues></_>
        <_>
          <internalNodes>
            0 -1 195 4.0706899017095566e-04</internalNodes>
          <leafValues>
            -5.1161003112792969e-01 4.0401658415794373e-01</leafValues></_>
        <_>
          <internalNodes>
            0 -1 94 -5.0034187734127045e-03</internalNodes>
          <leafValues>
            -9.1431456804275513e-01 2.6941585540771484e-01</leafValues></_>
        <_>
          <internalNodes>
            0 -1 88 6.7498134449124336e-03</internalNodes>
          <leafValues>
            -7.0031309127807617e-01 2.0754559338092804e-01</leafValues></_>
        <_>
          <internalNodes>
            0 -1 47 3.4644439816474915e-02</internalNodes>
          <leafValues>
            1.8550378084182739e-01 -8.6454546451568604e-01</leafValues></_>
        <_>
          <internalNodes>
            0 -1 35 -5.8826142922043800e-03</internalNodes>
          <leafValues>
            -8.6999547481536865e-01 1.3403622806072235e-01</leafValues></_>
        <_>
          <internalNodes>
            0 -1 22 -1.8539169104769826e-04</internalNodes>
          <leafValues>
            2.6985353231430054e-01 -5.5810433626174927e-01</leafValues></_>
        <_>
          <internalNodes>
            0 -1 36 -1.4999847859144211e-02</internalNodes>
          <leafValues>
            -8.3309310674667358e-01 1.5977382659912109e-01</leafValues></_></weakClassifiers></_>
    <!-- stage 2 -->
    <_>
      <maxWeakCount>11</maxWeakCount>
      <stageThreshold>-9.8689055442810059e-01</stageThreshold>
      <weakClassifiers>
        <_>
          <internalNodes>
            0 -1 23 -2.0529597532004118e-04</internalNodes>
          <leafValues>
            5.9468436241149902e-01 -3.1292009353637695e-01</leafValues></_>
        <_>
          <internalNodes>
            0 -1 164 5.1317684119567275e-04</internalNodes>
          <leafValues>
            -4.2987513542175293e-01 4.2009764909744263e-01</leafValues></_>
        <_>
          <internalNodes>
            0 -1 62 4.1632704436779022e-02</internalNodes>
          <leafValues>
            2.0321336388587952e-01 -8.6573100090026855e-01</leafValues></_>
        <_>
          <internalNodes>
            0 -1 26 8.8926102034747601e-04</internalNodes>
          <leafValues>
            -7.4589586257934570e-01 1.8259404599666595e-01</leafValues></_>
        <_>
          <internalNodes>
            0 -1 64 1.1308558285236359e-02</internalNodes>
          <leafValues>
            1.5538151562213898e-01 -8.4066241979598999e-01</leafValues></_>
        <_>
          <internalNodes>
            0 -1 96 4.0574474260210991e-03</internalNodes>
          <leafValues>
            1.2822359800338745e-01 -9.1537982225418091e-01</leafValues></_>
        <_>
          <internalNodes>
            0 -1 110 -3.5387426614761353e-02</internalNodes>
          <leafValues>
            -8.0212950706481934e-01 1.5687516331672668e-01</leafValues></_>
        <_>
          <internalNodes>
            0 -1 61 -3.2207986805588007e-03</internalNodes>
          <leafValues>
            2.4008551239967346e-01 -6.8392199277877808e-01</leafValues></_>
        <_>
          <internalNodes>
            0 -1 198 4.9214239697903395e-04</internalNodes>
          <leafValues>
            -4.7361487150192261e-01 2.8662371635437012e-01</leafValues></_>
        <_>
          <internalNodes>
            0 -1 104 3.7755048833787441e-03</internalNodes>
          <leafValues>
            1.7546984553337097e-01 -7.7068775892257690e-01</leafValues></_>
        <_>
          <internalNodes>
            0 -1 84 5.0034699961543083e-03</internalNodes>
          <leafValues>
            -5.1129859685897827e-01 2.4253982305526733e-01</leafValues></_></weakClassifiers></_>
    <!-- stage 3 -->
    <_>
      <maxWeakCount>10</maxWeakCount>
      <stageThreshold>-9.0276175737380981e-01</stageThreshold>
      <weakClassifiers>
        <_>
          <internalNodes>
            0 -1 55 -5.1531912758946419e-03</internalNodes>
          <leafValues>
            -7.6627713441848755e-01 4.9592694640159607e-01</leafValues></_>
        <_>
          <internalNodes>
            0 -1 2 6.1846645548939705e-03</internalNodes>
          <leafValues>
            -2.7762299776077271e-01 6.2042182683944702e-01</leafValues></_>
        <_>
          <internalNodes>
            0 -1 67 5.4226266220211983e-03</internalNodes>
          <leafValues>
            2.5002291798591614e-01 -7.0558440685272217e-01</leafValues></_>
        <_>
          <internalNodes>
            0 -1 208 -4.2325565591454506e-03</internalNodes>
          <leafValues>
            6.6746890544891357e-01 -2.4539047479629517e-01</leafValues></_>
        <_>
          <internalNodes>
            0 -1 139 4.0168873965740204e-03</internalNodes>
          <leafValues>
            -4.4662821292877197e-01 2.6992306113243103e-01</leafValues></_>
        <_>
          <internalNodes>
            0 -1 201 4.6790996566414833e-03</internalNodes>
          <leafValues>
            -2.8149938583374023e-01 4.8770764470100403e-01</leafValues></_>
        <_>
          <internalNodes>
            0 -1 127 -1.0329311480745673e-03</internalNodes>
          <leafValues>
            -9.2672610282897949e-01 1.2901802361011505e-01</leafValues></_>
        <_>
          <internalNodes>
            0 -1 159 -6.1820226255804300e-04</internalNodes>
          <leafValues>
            3.6668646335601807e-01 -3.3216375112533569e-01</leafValues></_>
        <_>
          <internalNodes>
            0 -1 90 -3.3970177173614502e-02</internalNodes>
          <leafValues>
            -8.3664911985397339e-01 1.6858758032321930e-01</leafValues></_>
        <_>
          <internalNodes>
            0 -1 75 -4.7980258241295815e-03</internalNodes>
          <leafValues>
            1.8264043331146240e-01 -7.2466224431991577e-01</leafValues></_></weakClassifiers></_>
    <!-- stage 4 -->
    <_>
      <maxWeakCount>13</maxWeakCount>
      <stageThreshold>-9.6126514673233032e-01</stageThreshold>
      <weakClassifiers>
        <_>
          <internalNodes>
            0 -1 71 -1.7049617599695921e-03</internalNodes>
          <leafValues>
            5.8668684959411621e-01 -2.8921931982040405e-01</leafValues></_>
        <_>
          <internalNodes>
            0 -1 33 -6.5008653327822685e-03</internalNodes>
          <leafValues>
            -7.8014689683914185e-01 2.3261834681034088e-01</leafValues></_>
        <_>
          <internalNodes>
            0 -1 16 -1.1851196177303791e-04</internalNodes>
          <leafValues>
            2.8447315096855164e-01 -4.8997828364372253e-01</leafValues></_>
        <_>
          <internalNodes>
            0 -1 181 6.4072720706462860e-03</internalNodes>
          <leafValues>
            -2.8136932849884033e-01 4.9930477142333984e-01</leafValues></_>
        <_>
          <internalNodes>
            0 -1 41 2.7652429416775703e-03</internalNodes>
          <leafValues>
            -2.9254242777824402e-01 4.1155374050140381e-01</leafValues></_>
        <_>
          <internalNodes>
            0 -1 116 5.7044858112931252e-03</internalNodes>
          <leafValues>
            1.1772000789642334e-01 -8.4167230129241943e-01</leafValues></_>
        <_>
          <internalNodes>
            0 -1 152 -5.9356600046157837e-02</internalNodes>
          <leafValues>
            -8.4784680604934692e-01 1.0309243947267532e-01</leafValues></_>
        <_>
          <internalNodes>
            0 -1 122 -6.2742996960878372e-03</internalNodes>
          <leafValues>
            1.7621615529060364e-01 -6.4727246761322021e-01</leafValues></_>
        <_>
          <internalNodes>
            0 -1 197 6.2038295436650515e-04</internalNodes>
          <leafValues>
            -4.1123944520950317e-01 2.5328245759010315e-01</leafValues></_>
        <_>
          <internalNodes>
            0 -1 138 -5.7664886116981506e-04</internalNodes>
          <leafValues>
            -4.0659621357917786e-01 2.7318441867828369e-01</leafValues></_>
        <_>
          <internalNodes>
            0 -1 100 -6.6825211979448795e-04</internalNodes>
          <leafValues>
            -8.9172047376632690e-01 1.0965055972337723e-01</leafValues></_>
        <_>
          <internalNodes>
            0 -1 5 1.8162179738283157e-02</internalNodes>
          <leafValues>
            -2.3989617824554443e-01 4.6516901254653931e-01</leafValues></_>
        <_>
          <internalNodes>
            0 -1 162 3.9442880079150200e-03</internalNodes>
          <leafValues>
            -2.6645997166633606e-01 3.8805392384529114e-01</leafValues></_></weakClassifiers></_>
    <!-- stage 5 -->
    <_>
      <maxWeakCount>16</maxWeakCount>
      <stageThreshold>-1.0279815196990967e+00</stageThreshold>
      <weakClassifiers>
        <_>
          <internalNodes>
            0 -1 123 7.4586858972907066e-03</internalNodes>
          <leafValues>
            -2.9734361171722412e-01 5.4464542865753174e-01</leafValues></_>
        <_>
          <internalNodes>
            0 -1 45 3.1081377528607845e-04</internalNodes>
          <leafValues>
            2.8226381540298462e-01 -5.6517958641052246e-01</leafValues></_>
        <_>
          <internalNodes>
            0 -1 101 6.4155384898185730e-03</internalNodes>
          <leafValues>
            2.3665450513362885e-01 -6.5364468097686768e-01</leafValues></_>
        <_>
          <internalNodes>
            0 -1 210 -1.5476307598873973e-03</internalNodes>
          <leafValues>
            5.0593018531799316e-01 -3.2006260752677917e-01</leafValues></_>
        <_>
          <internalNodes>
            0 -1 39 -4.6336431987583637e-03</internalNodes>
          <leafValues>
            -8.2678920030593872e-01 1.4075087010860443e-01</leafValues></_>
        <_>
          <internalNodes>
            0 -1 4 8.0537628382444382e-03</internalNodes>
          <leafValues>
            -2.5071918964385986e-01 4.5108616352081299e-01</leafValues></_>
        <_>
          <internalNodes>
            0 -1 74 -2.0513860508799553e-03</internalNodes>
          <leafValues>
            -5.4142439365386963e-01 1.7162340879440308e-01</leafValues></_>
        <_>
          <internalNodes>
            0 -1 29 -6.1387658119201660e-02</internalNodes>
          <leafValues>
            -7.9061853885650635e-01 1.1718660593032837e-01</leafValues></_>
        <_>
          <internalNodes>
            0 -1 153 -1.4097365783527493e-03</internalNodes>
          <leafValues>
            1.2633539736270905e-01 -6.2724190950393677e-01</leafValues></_>
        <_>
          <internalNodes>
            0 -1 56 -2.2575724869966507e-03</internalNodes>
          <leafValues>
            -6.3330793380737305e-01 1.4573414623737335e-01</leafValues></_>
        <_>
          <internalNodes>
            0 -1 73 4.4297138229012489e-03</internalNodes>
          <leafValues>
            -2.3416148126125336e-01 4.9161994457244873e-01</leafValues></_>
        <_>
          <internalNodes>
            0 -1 51 3.8009576499462128e-02</internalNodes>
          <leafValues>
            1.4638963341712952e-01 -7.9709136486053467e-01</leafValues></_>
        <_>
          <internalNodes>
            0 -1 32 2.9524969868361950e-03</internalNodes>
          <leafValues>
            -2.3265533149242401e-01 4.1689816117286682e-01</leafValues></_>
        <_>
          <internalNodes>
            0 -1 135 9.6433272119611502e-04</internalNodes>
          <leafValues>
            1.0231213271617889e-01 -8.5416054725646973e-01</leafValues></_>
        <_>
          <internalNodes>
            0 -1 168 -3.3742643427103758e-03</internalNodes>
          <leafValues>
            3.5527145862579346e-01 -2.5154605507850647e-01</leafValues></_>
        <_>
          <internalNodes>
            0 -1 48 -2.7535922825336456e-02</internalNodes>
          <leafValues>
            -7.9905909299850464e-01 1.1695222556591034e-01</leafValues></_></weakClassifiers></_>
    <!-- stage 6 -->
    <_>
      <maxWeakCount>15</maxWeakCount>
      <stageThreshold>-9.7139436006546021e-01</stageThreshold>
      <weakClassifiers>
        <_>
          <internalNodes>
            0 -1 178 9.6483365632593632e-04</internalNodes>
          <leafValues>
            5.0141060352325439e-01 -5.3928095102310181e-01</leafValues></_>
        <_>
          <internalNodes>
            0 -1 31 -2.6162370340898633e-04</internalNodes>
          <leafValues>
            3.1909784674644470e-01 -4.8018872737884521e-01</leafValues></_>
        <_>
          <internalNodes>
            0 -1 160 1.9111363217234612e-03</internalNodes>
          <leafValues>
            -3.3967581391334534e-01 3.8835340738296509e-01</leafValues></_>
        <_>
          <internalNodes>
            0 -1 37 -3.1881730537861586e-03</internalNodes>
          <leafValues>
            -6.8085402250289917e-01 1.6426010429859161e-01</leafValues></_>
        <_>
          <internalNodes>
            0 -1 106 -3.8017243146896362e-02</internalNodes>
          <leafValues>
            4.3261891603469849e-01 -2.4810630083084106e-01</leafValues></_>
        <_>
          <internalNodes>
            0 -1 115 -3.8224016316235065e-03</internalNodes>
          <leafValues>
            -6.5946888923645020e-01 1.2068375945091248e-01</leafValues></_>
        <_>
          <internalNodes>
            0 -1 134 7.3288558050990105e-03</internalNodes>
          <leafValues>
            -2.2002089023590088e-01 5.0739264488220215e-01</leafValues></_>
        <_>
          <internalNodes>
            0 -1 83 1.8097925931215286e-03</internalNodes>
          <leafValues>
            -2.3472845554351807e-01 4.9418359994888306e-01</leafValues></_>
        <_>
          <internalNodes>
            0 -1 147 3.4024997148662806e-04</internalNodes>
          <leafValues>
            1.1906050890684128e-01 -9.2964857816696167e-01</leafValues></_>
        <_>
          <internalNodes>
            0 -1 70 4.2744614183902740e-02</internalNodes>
          <leafValues>
            9.1088205575942993e-02 -8.2881021499633789e-01</leafValues></_>
        <_>
          <internalNodes>
            0 -1 157 -5.4733082652091980e-03</internalNodes>
          <leafValues>
            1.2189211696386337e-01 -6.8025779724121094e-01</leafValues></_>
        <_>
          <internalNodes>
            0 -1 133 -2.3927051573991776e-02</internalNodes>
          <leafValues>
            -6.8911284208297729e-01 1.1883503943681717e-01</leafValues></_>
        <_>
          <internalNodes>
            0 -1 146 -4.5731494901701808e-04</internalNodes>
          <leafValues>
            -8.7207925319671631e-01 9.7134284675121307e-02</leafValues></_>
        <_>
          <internalNodes>
            0 -1 209 -1.3403638731688261e-03</internalNodes>
          <leafValues>
            4.8820194602012634e-01 -2.1331109106540680e-01</leafValues></_>
        <_>
          <internalNodes>
            0 -1 102 1.5823749708943069e-04</internalNodes>
          <leafValues>
            -4.0247550606727600e-01 2.4319045245647430e-01</leafValues></_></weakClassifiers></_>
    <!-- stage 7 -->
    <_>
      <maxWeakCount>15</maxWeakCount>
      <stageThreshold>-9.3936848640441895e-01</stageThreshold>
      <weakClassifiers>
        <_>
          <internalNodes>
            0 -1 124 2.8307801112532616e-03</internalNodes>
          <leafValues>
            -3.3136677742004395e-01 5.1940542459487915e-01</leafValues></_>
        <_>
          <internalNodes>
            0 -1 27 -3.9962418377399445e-03</internalNodes>
          <leafValues>
            -6.6235232353210449e-01 2.2122803330421448e-01</leafValues></_>
        <_>
          <internalNodes>
            0 -1 30 -2.0275190763641149e-04</internalNodes>
          <leafValues>
            2.6069322228431702e-01 -5.2041167020797729e-01</leafValues></_>
        <_>
          <internalNodes>
            0 -1 91 -4.1482010856270790e-03</internalNodes>
          <leafValues>
            3.4700721502304077e-01 -3.4343761205673218e-01</leafValues></_>
        <_>
          <internalNodes>
            0 -1 203 -3.7254057824611664e-03</internalNodes>
          <leafValues>
            4.4757732748985291e-01 -2.4798014760017395e-01</leafValues></_>
        <_>
          <internalNodes>
            0 -1 99 4.4743032194674015e-03</internalNodes>
          <leafValues>
            1.5692815184593201e-01 -5.3366243839263916e-01</leafValues></_>
        <_>
          <internalNodes>
            0 -1 54 -1.5825205482542515e-03</internalNodes>
          <leafValues>
            2.8561142086982727e-01 -3.5007923841476440e-01</leafValues></_>
        <_>
          <internalNodes>
            0 -1 86 2.8123980882810429e-05</internalNodes>
          <leafValues>
            -3.9266258478164673e-01 2.5629919767379761e-01</leafValues></_>
        <_>
          <internalNodes>
            0 -1 28 3.6320373415946960e-02</internalNodes>
          <leafValues>
            1.7121054232120514e-01 -6.3458210229873657e-01</leafValues></_>
        <_>
          <internalNodes>
            0 -1 170 2.5236746296286583e-04</internalNodes>
          <leafValues>
            7.4768297374248505e-02 -8.3786964416503906e-01</leafValues></_>
        <_>
          <internalNodes>
            0 -1 87 2.9143630526959896e-03</internalNodes>
          <leafValues>
            1.1901222169399261e-01 -6.5144032239913940e-01</leafValues></_>
        <_>
          <internalNodes>
            0 -1 141 -6.4964923076331615e-03</internalNodes>
          <leafValues>
            4.8894333839416504e-01 -1.8780153989791870e-01</leafValues></_>
        <_>
          <internalNodes>
            0 -1 167 -6.3921436667442322e-03</internalNodes>
          <leafValues>
            6.0287040472030640e-01 -2.3387946188449860e-01</leafValues></_>
        <_>
          <internalNodes>
            0 -1 150 5.9653969947248697e-04</internalNodes>
          <leafValues>
            1.6912113130092621e-01 -8.3573806285858154e-01</leafValues></_>
        <_>
          <internalNodes>
            0 -1 114 6.9397361949086189e-03</internalNodes>
          <leafValues>
            -2.8395867347717285e-01 3.5259282588958740e-01</leafValues></_></weakClassifiers></_>
    <!-- stage 8 -->
    <_>
      <maxWeakCount>14</maxWeakCount>
      <stageThreshold>-8.3231860399246216e-01</stageThreshold>
      <weakClassifiers>
        <_>
          <internalNodes>
            0 -1 44 -1.0154834017157555e-02</internalNodes>
          <leafValues>
            -5.6928211450576782e-01 4.6679833531379700e-01</leafValues></_>
        <_>
          <internalNodes>
            0 -1 194 1.0375115089118481e-03</internalNodes>
          <leafValues>
            -4.9058616161346436e-01 3.3735346794128418e-01</leafValues></_>
        <_>
          <internalNodes>
            0 -1 6 7.9245716333389282e-03</internalNodes>
          <leafValues>
            -2.4268198013305664e-01 4.4465082883834839e-01</leafValues></_>
        <_>
          <internalNodes>
            0 -1 43 -1.0986373759806156e-02</internalNodes>
          <leafValues>
            -7.1052509546279907e-01 1.4896866679191589e-01</leafValues></_>
        <_>
          <internalNodes>
            0 -1 69 -2.6911145541816950e-03</internalNodes>
          <leafValues>
            1.3197378814220428e-01 -7.2749507427215576e-01</leafValues></_>
        <_>
          <internalNodes>
            0 -1 109 -3.5910770297050476e-02</internalNodes>
          <leafValues>
            -5.9126490354537964e-01 1.4989882707595825e-01</leafValues></_>
        <_>
          <internalNodes>
            0 -1 199 -1.1866865679621696e-03</internalNodes>
          <leafValues>
            3.7826934456825256e-01 -2.6382681727409363e-01</leafValues></_>
        <_>
          <internalNodes>
            0 -1 166 -6.1590701807290316e-04</internalNodes>
          <leafValues>
            5.3249853849411011e-01 -2.0219688117504120e-01</leafValues></_>
        <_>
          <internalNodes>
            0 -1 131 5.8234930038452148e-03</internalNodes>
          <leafValues>
            9.6451319754123688e-02 -8.3528238534927368e-01</leafValues></_>
        <_>
          <internalNodes>
            0 -1 204 -3.1813404057174921e-03</internalNodes>
          <leafValues>
            4.2813766002655029e-01 -2.2609466314315796e-01</leafValues></_>
        <_>
          <internalNodes>
            0 -1 98 3.0238213948905468e-03</internalNodes>
          <leafValues>
            1.2960019707679749e-01 -8.4404885768890381e-01</leafValues></_>
        <_>
          <internalNodes>
            0 -1 156 -1.0165444109588861e-03</internalNodes>
          <leafValues>
            3.3893212676048279e-01 -3.3326005935668945e-01</leafValues></_>
        <_>
          <internalNodes>
            0 -1 9 -1.2672460870817304e-03</internalNodes>
          <leafValues>
            4.4351735711097717e-01 -2.0553399622440338e-01</leafValues></_>
        <_>
          <internalNodes>
            0 -1 183 1.4273656415753067e-04</internalNodes>
          <leafValues>
            -2.4391041696071625e-01 3.5691848397254944e-01</leafValues></_></weakClassifiers></_>
    <!-- stage 9 -->
    <_>
      <maxWeakCount>17</maxWeakCount>
      <stageThreshold>-9.7073262929916382e-01</stageThreshold>
      <weakClassifiers>
        <_>
          <internalNodes>
            0 -1 1 6.1019174754619598e-03</internalNodes>
          <leafValues>
            4.3103449046611786e-02 6.8636798858642578e-01</leafValues></_>
        <_>
          <internalNodes>
            0 -1 125 3.4168682759627700e-04</internalNodes>
          <leafValues>
            -3.0261948704719543e-01 3.6042508482933044e-01</leafValues></_>
        <_>
          <internalNodes>
            0 -1 103 5.1427669823169708e-03</internalNodes>
          <leafValues>
            1.4075273275375366e-01 -7.6301997900009155e-01</leafValues></_>
        <_>
          <internalNodes>
            0 -1 177 9.9586080759763718e-03</internalNodes>
          <leafValues>
            -2.7719098329544067e-01 3.9221027493476868e-01</leafValues></_>
        <_>
          <internalNodes>
            0 -1 179 -1.0419951751828194e-02</internalNodes>
          <leafValues>
            4.7023105621337891e-01 -2.5701311230659485e-01</leafValues></_>
        <_>
          <internalNodes>
            0 -1 190 -5.1835551857948303e-03</internalNodes>
          <leafValues>
            4.9088567495346069e-01 -1.8737597763538361e-01</leafValues></_>
        <_>
          <internalNodes>
            0 -1 137 2.4103187024593353e-03</internalNodes>
          <leafValues>
            1.4637738466262817e-01 -6.4635521173477173e-01</leafValues></_>
        <_>
          <internalNodes>
            0 -1 165 4.7375820577144623e-04</internalNodes>
          <leafValues>
            1.1511088907718658e-01 -7.9007804393768311e-01</leafValues></_>
        <_>
          <internalNodes>
            0 -1 129 3.7300286348909140e-03</internalNodes>
          <leafValues>
            -2.8883537650108337e-01 3.4296151995658875e-01</leafValues></_>
        <_>
          <internalNodes>
            0 -1 49 7.7537126839160919e-02</internalNodes>
          <leafValues>
            9.4839803874492645e-02 -8.2564985752105713e-01</leafValues></_>
        <_>
          <internalNodes>
            0 -1 68 3.1851446256041527e-03</internalNodes>
          <leafValues>
            -2.5930097699165344e-01 3.2599151134490967e-01</leafValues></_>
        <_>
          <internalNodes>
            0 -1 143 1.0218881070613861e-03</internalNodes>
          <leafValues>
            1.0830355435609818e-01 -8.8198339939117432e-01</leafValues></_>
        <_>
          <internalNodes>
            0 -1 119 1.8247102852910757e-03</internalNodes>
          <leafValues>
            -2.4281069636344910e-01 3.5123562812805176e-01</leafValues></_>
        <_>
          <internalNodes>
            0 -1 42 2.7581960894167423e-03</internalNodes>
          <leafValues>
            -2.6478376984596252e-01 3.2150286436080933e-01</leafValues></_>
        <_>
          <internalNodes>
            0 -1 82 3.5034120082855225e-03</internalNodes>
          <leafValues>
            -2.1459510922431946e-01 4.2336502671241760e-01</leafValues></_>
        <_>
          <internalNodes>
            0 -1 145 1.8374179489910603e-03</internalNodes>
          <leafValues>
            9.3842543661594391e-02 -9.0197694301605225e-01</leafValues></_>
        <_>
          <internalNodes>
            0 -1 155 2.4324478581547737e-03</internalNodes>
          <leafValues>
            -2.4952894449234009e-01 3.5289183259010315e-01</leafValues></_></weakClassifiers></_>
    <!-- stage 10 -->
    <_>
      <maxWeakCount>16</maxWeakCount>
      <stageThreshold>-9.8774641752243042e-01</stageThreshold>
      <weakClassifiers>
        <_>
          <internalNodes>
            0 -1 25 1.4604796655476093e-02</internalNodes>
          <leafValues>
            4.9273103475570679e-01 -4.3609023094177246e-01</leafValues></_>
        <_>
          <internalNodes>
            0 -1 46 -2.3736015427857637e-03</internalNodes>
          <leafValues>
            -5.9411841630935669e-01 2.5155022740364075e-01</leafValues></_>
        <_>
          <internalNodes>
            0 -1 72 -1.9131634617224336e-03</internalNodes>
          <leafValues>
            -7.9321247339248657e-01 1.4052237570285797e-01</leafValues></_>
        <_>
          <internalNodes>
            0 -1 95 1.3950024731457233e-04</internalNodes>
          <leafValues>
            -3.3347669243812561e-01 3.9241734147071838e-01</leafValues></_>
        <_>
          <internalNodes>
            0 -1 176 1.7744500190019608e-02</internalNodes>
          <leafValues>
            -2.5515246391296387e-01 4.3162414431571960e-01</leafValues></_>
        <_>
          <internalNodes>
            0 -1 13 -7.2772977873682976e-03</internalNodes>
          <leafValues>
            3.7272509932518005e-01 -2.4645389616489410e-01</leafValues></_>
        <_>
          <internalNodes>
            0 -1 92 -7.5739040039479733e-04</internalNodes>
          <leafValues>
            -7.7748310565948486e-01 1.1982005834579468e-01</leafValues></_>
        <_>
          <internalNodes>
            0 -1 14 -9.6598759293556213e-02</internalNodes>
          <leafValues>
            -8.7049710750579834e-01 8.5776038467884064e-02</leafValues></_>
        <_>
          <internalNodes>
            0 -1 118 -1.7317265272140503e-02</internalNodes>
          <leafValues>
            1.7899376153945923e-01 -4.7166043519973755e-01</leafValues></_>
        <_>
          <internalNodes>
            0 -1 93 6.0019711963832378e-04</internalNodes>
          <leafValues>
            7.0722587406635284e-02 -7.6743477582931519e-01</leafValues></_>
        <_>
          <internalNodes>
            0 -1 192 -6.5090907737612724e-03</internalNodes>
          <leafValues>
            5.3148794174194336e-01 -1.7630022764205933e-01</leafValues></_>
        <_>
          <internalNodes>
            0 -1 184 8.6188444402068853e-04</internalNodes>
          <leafValues>
            1.3039155304431915e-01 -7.5759208202362061e-01</leafValues></_>
        <_>
          <internalNodes>
            0 -1 174 6.3840318471193314e-03</internalNodes>
          <leafValues>
            -1.7934723198413849e-01 5.0136864185333252e-01</leafValues></_>
        <_>
          <internalNodes>
            0 -1 163 -7.4422424659132957e-03</internalNodes>
          <leafValues>
            5.2144056558609009e-01 -1.8192833662033081e-01</leafValues></_>
        <_>
          <internalNodes>
            0 -1 158 9.4084057491272688e-04</internalNodes>
          <leafValues>
            1.1279013007879257e-01 -8.7522727251052856e-01</leafValues></_>
        <_>
          <internalNodes>
            0 -1 191 -4.5253899879753590e-03</internalNodes>
          <leafValues>
            2.9793748259544373e-01 -3.0005082488059998e-01</leafValues></_></weakClassifiers></_>
    <!-- stage 11 -->
    <_>
      <maxWeakCount>19</maxWeakCount>
      <stageThreshold>-9.6902549266815186e-01</stageThreshold>
      <weakClassifiers>
        <_>
          <internalNodes>
            0 -1 40 -3.4087389940395951e-04</internalNodes>
          <leafValues>
            5.3165656328201294e-01 -2.4265323579311371e-01</leafValues></_>
        <_>
          <internalNodes>
            0 -1 21 6.8180909147486091e-04</internalNodes>
          <leafValues>
            2.4758017063140869e-01 -4.8833346366882324e-01</leafValues></_>
        <_>
          <internalNodes>
            0 -1 18 -5.9592789039015770e-03</internalNodes>
          <leafValues>
            -6.1912518739700317e-01 1.7875964939594269e-01</leafValues></_>
        <_>
          <internalNodes>
            0 -1 77 3.3802292309701443e-03</internalNodes>
          <leafValues>
            -6.1897528171539307e-01 1.6080524027347565e-01</leafValues></_>
        <_>
          <internalNodes>
            0 -1 50 1.6706503927707672e-02</internalNodes>
          <leafValues>
            1.4123654365539551e-01 -7.8279829025268555e-01</leafValues></_>
        <_>
          <internalNodes>
            0 -1 205 6.1044394969940186e-03</internalNodes>
          <leafValues>
            -1.9520239531993866e-01 5.7232099771499634e-01</leafValues></_>
        <_>
          <internalNodes>
            0 -1 11 2.6760548353195190e-02</internalNodes>
          <leafValues>
            -1.6198566555976868e-01 6.9838482141494751e-01</leafValues></_>
        <_>
          <internalNodes>
            0 -1 12 -3.7288020830601454e-03</internalNodes>
          <leafValues>
            3.5509261488914490e-01 -2.6790925860404968e-01</leafValues></_>
        <_>
          <internalNodes>
            0 -1 107 9.2361848801374435e-03</internalNodes>
          <leafValues>
            -1.7011348903179169e-01 5.2969211339950562e-01</leafValues></_>
        <_>
          <internalNodes>
            0 -1 112 -2.9395552701316774e-04</internalNodes>
          <leafValues>
            -3.2678684592247009e-01 2.4632667005062103e-01</leafValues></_>
        <_>
          <internalNodes>
            0 -1 66 -1.2030931975459680e-04</internalNodes>
          <leafValues>
            2.5282153487205505e-01 -3.0459693074226379e-01</leafValues></_>
        <_>
          <internalNodes>
            0 -1 172 1.3790602679364383e-04</internalNodes>
          <leafValues>
            9.3531787395477295e-02 -8.8186949491500854e-01</leafValues></_>
        <_>
          <internalNodes>
            0 -1 121 1.3086783001199365e-03</internalNodes>
          <leafValues>
            -2.6597353816032410e-01 3.4799385070800781e-01</leafValues></_>
        <_>
          <internalNodes>
            0 -1 136 1.7661690944805741e-03</internalNodes>
          <leafValues>
            1.2428177893161774e-01 -7.8481107950210571e-01</leafValues></_>
        <_>
          <internalNodes>
            0 -1 154 5.4829870350658894e-04</internalNodes>
          <leafValues>
            -2.0151855051517487e-01 4.2309549450874329e-01</leafValues></_>
        <_>
          <internalNodes>
            0 -1 78 -1.2917475542053580e-03</internalNodes>
          <leafValues>
            -7.3567265272140503e-01 1.1897344887256622e-01</leafValues></_>
        <_>
          <internalNodes>
            0 -1 144 -2.3467259597964585e-04</internalNodes>
          <leafValues>
            2.5456029176712036e-01 -3.2497879862785339e-01</leafValues></_>
        <_>
          <internalNodes>
            0 -1 202 2.1068786736577749e-03</internalNodes>
          <leafValues>
            -2.1235066652297974e-01 3.5496401786804199e-01</leafValues></_>
        <_>
          <internalNodes>
            0 -1 189 -7.7914572320878506e-03</internalNodes>
          <leafValues>
            4.2344993352890015e-01 -2.0222343504428864e-01</leafValues></_></weakClassifiers></_>
    <!-- stage 12 -->
    <_>
      <maxWeakCount>18</maxWeakCount>
      <stageThreshold>-9.9235600233078003e-01</stageThreshold>
      <weakClassifiers>
        <_>
          <internalNodes>
            0 -1 193 1.8537434516474605e-04</internalNodes>
          <leafValues>
            -1.8258427083492279e-01 5.6106632947921753e-01</leafValues></_>
        <_>
          <internalNodes>
            0 -1 59 1.9879352767020464e-03</internalNodes>
          <leafValues>
            -5.8791601657867432e-01 2.5463882088661194e-01</leafValues></_>
        <_>
          <internalNodes>
            0 -1 206 -3.5120993852615356e-03</internalNodes>
          <leafValues>
            3.8165831565856934e-01 -2.5174832344055176e-01</leafValues></_>
        <_>
          <internalNodes>
            0 -1 20 -8.1855626776814461e-03</internalNodes>
          <leafValues>
            -7.6176971197128296e-01 1.2220264971256256e-01</leafValues></_>
        <_>
          <internalNodes>
            0 -1 31 -5.3331279195845127e-04</internalNodes>
          <leafValues>
            2.2541378438472748e-01 -4.1049730777740479e-01</leafValues></_>
        <_>
          <internalNodes>
            0 -1 200 1.7827938427217305e-04</internalNodes>
          <leafValues>
            -3.4966722130775452e-01 2.5637650489807129e-01</leafValues></_>
        <_>
          <internalNodes>
            0 -1 24 -8.8967606425285339e-02</internalNodes>
          <leafValues>
            -6.3344103097915649e-01 1.1390050500631332e-01</leafValues></_>
        <_>
          <internalNodes>
            0 -1 89 -4.4882250949740410e-03</internalNodes>
          <leafValues>
            1.3425177335739136e-01 -5.7098668813705444e-01</leafValues></_>
        <_>
          <internalNodes>
            0 -1 128 6.4675593748688698e-03</internalNodes>
          <leafValues>
            1.2168520689010620e-01 -7.0476555824279785e-01</leafValues></_>
        <_>
          <internalNodes>
            0 -1 117 -3.5819243639707565e-02</internalNodes>
          <leafValues>
            -5.1895385980606079e-01 1.3743430376052856e-01</leafValues></_>
        <_>
          <internalNodes>
            0 -1 188 2.9108591843396425e-04</internalNodes>
          <leafValues>
            -2.4617525935173035e-01 3.0317530035972595e-01</leafValues></_>
        <_>
          <internalNodes>
            0 -1 185 1.6328089986927807e-04</internalNodes>
          <leafValues>
            -2.2441045939922333e-01 3.7790647149085999e-01</leafValues></_>
        <_>
          <internalNodes>
            0 -1 34 3.1699936371296644e-03</internalNodes>
          <leafValues>
            -1.7707090079784393e-01 3.9752259850502014e-01</leafValues></_>
        <_>
          <internalNodes>
            0 -1 161 -7.7285419683903456e-04</internalNodes>
          <leafValues>
            -5.0594335794448853e-01 1.6524034738540649e-01</leafValues></_>
        <_>
          <internalNodes>
            0 -1 148 -1.3278026599436998e-03</internalNodes>
          <leafValues>
            -8.7044739723205566e-01 7.9666793346405029e-02</leafValues></_>
        <_>
          <internalNodes>
            0 -1 173 -1.2705300468951464e-03</internalNodes>
          <leafValues>
            3.1016778945922852e-01 -2.4834352731704712e-01</leafValues></_>
        <_>
          <internalNodes>
            0 -1 169 5.7721068151295185e-04</internalNodes>
          <leafValues>
            7.7067486941814423e-02 -9.4219416379928589e-01</leafValues></_>
        <_>
          <internalNodes>
            0 -1 8 -3.5890543367713690e-03</internalNodes>
          <leafValues>
            4.2553508281707764e-01 -2.0347741246223450e-01</leafValues></_></weakClassifiers></_>
    <!-- stage 13 -->
    <_>
      <maxWeakCount>21</maxWeakCount>
      <stageThreshold>-1.0180195569992065e+00</stageThreshold>
      <weakClassifiers>
        <_>
          <internalNodes>
            0 -1 113 -6.1717829667031765e-03</internalNodes>
          <leafValues>
            -4.5230770111083984e-01 4.6099999547004700e-01</leafValues></_>
        <_>
          <internalNodes>
            0 -1 151 4.4621154665946960e-03</internalNodes>
          <leafValues>
            2.1584026515483856e-01 -5.7740300893783569e-01</leafValues></_>
        <_>
          <internalNodes>
            0 -1 187 -3.1888296362012625e-03</internalNodes>
          <leafValues>
            2.3587243258953094e-01 -4.4277289509773254e-01</leafValues></_>
        <_>
          <internalNodes>
            0 -1 38 -1.9868144590873271e-04</internalNodes>
          <leafValues>
            2.1912266314029694e-01 -4.6054366230964661e-01</leafValues></_>
        <_>
          <internalNodes>
            0 -1 7 4.3224081397056580e-02</internalNodes>
          <leafValues>
            -2.1420024335384369e-01 4.1097453236579895e-01</leafValues></_>
        <_>
          <internalNodes>
            0 -1 53 -2.5571032892912626e-03</internalNodes>
          <leafValues>
            9.3670599162578583e-02 -8.1942713260650635e-01</leafValues></_>
        <_>
          <internalNodes>
            0 -1 19 -4.4715270400047302e-02</internalNodes>
          <leafValues>
            -8.0871468782424927e-01 8.4230780601501465e-02</leafValues></_>
        <_>
          <internalNodes>
            0 -1 175 1.7366996034979820e-03</internalNodes>
          <leafValues>
            -2.4982146918773651e-01 3.2506939768791199e-01</leafValues></_>
        <_>
          <internalNodes>
            0 -1 140 2.5220056995749474e-03</internalNodes>
          <leafValues>
            -2.6079496741294861e-01 4.2728322744369507e-01</leafValues></_>
        <_>
          <internalNodes>
            0 -1 10 -2.7631982229650021e-03</internalNodes>
          <leafValues>
            3.7867310643196106e-01 -2.1234104037284851e-01</leafValues></_>
        <_>
          <internalNodes>
            0 -1 120 -2.6945961639285088e-02</internalNodes>
          <leafValues>
            -9.2440152168273926e-01 7.1124143898487091e-02</leafValues></_>
        <_>
          <internalNodes>
            0 -1 79 5.1099387928843498e-03</internalNodes>
          <leafValues>
            1.1173827201128006e-01 -6.2048649787902832e-01</leafValues></_>
        <_>
          <internalNodes>
            0 -1 15 -7.3363364208489656e-04</internalNodes>
          <leafValues>
            2.3023344576358795e-01 -3.6085018515586853e-01</leafValues></_>
        <_>
          <internalNodes>
            0 -1 3 3.4707657992839813e-02</internalNodes>
          <leafValues>
            -1.9726085662841797e-01 4.4350340962409973e-01</leafValues></_>
        <_>
          <internalNodes>
            0 -1 81 2.3089991882443428e-03</internalNodes>
          <leafValues>
            -2.1260878443717957e-01 3.7858748435974121e-01</leafValues></_>
        <_>
          <internalNodes>
            0 -1 58 8.1888516433537006e-04</internalNodes>
          <leafValues>
            -2.9395452141761780e-01 2.9907324910163879e-01</leafValues></_>
        <_>
          <internalNodes>
            0 -1 207 5.7026175782084465e-03</internalNodes>
          <leafValues>
            -1.5233966708183289e-01 5.1867997646331787e-01</leafValues></_>
        <_>
          <internalNodes>
            0 -1 105 5.5536435684189200e-04</internalNodes>
          <leafValues>
            -2.7588066458702087e-01 3.0007961392402649e-01</leafValues></_>
        <_>
          <internalNodes>
            0 -1 130 2.6067257858812809e-03</internalNodes>
          <leafValues>
            1.3648088276386261e-01 -6.5623474121093750e-01</leafValues></_>
        <_>
          <internalNodes>
            0 -1 142 -1.7241797177121043e-03</internalNodes>
          <leafValues>
            3.1783077120780945e-01 -2.8012162446975708e-01</leafValues></_>
        <_>
          <internalNodes>
            0 -1 186 -3.3997263759374619e-02</internalNodes>
          <leafValues>
            -8.8882541656494141e-01 9.4777420163154602e-02</leafValues></_></weakClassifiers></_>
    <!-- stage 14 -->
    <_>
      <maxWeakCount>15</maxWeakCount>
      <stageThreshold>-9.2958343029022217e-01</stageThreshold>
      <weakClassifiers>
        <_>
          <internalNodes>
            0 -1 132 -1.8139285966753960e-03</internalNodes>
          <leafValues>
            -4.7960618138313293e-01 4.8007109761238098e-01</leafValues></_>
        <_>
          <internalNodes>
            0 -1 17 -5.9152492322027683e-03</internalNodes>
          <leafValues>
            -6.6058355569839478e-01 1.8774642050266266e-01</leafValues></_>
        <_>
          <internalNodes>
            0 -1 23 -2.1044438472017646e-04</internalNodes>
          <leafValues>
            2.1536166965961456e-01 -5.2517437934875488e-01</leafValues></_>
        <_>
          <internalNodes>
            0 -1 182 5.7929065078496933e-03</internalNodes>
          <leafValues>
            -3.6667770147323608e-01 2.8180477023124695e-01</leafValues></_>
        <_>
          <internalNodes>
            0 -1 211 -2.3302938789129257e-03</internalNodes>
          <leafValues>
            5.9576296806335449e-01 -1.7791554331779480e-01</leafValues></_>
        <_>
          <internalNodes>
            0 -1 97 6.1505954363383353e-05</internalNodes>
          <leafValues>
            -4.2526751756668091e-01 2.3236891627311707e-01</leafValues></_>
        <_>
          <internalNodes>
            0 -1 65 2.2440890315920115e-03</internalNodes>
          <leafValues>
            1.2477797269821167e-01 -7.7756881713867188e-01</leafValues></_>
        <_>
          <internalNodes>
            0 -1 108 -4.9898824654519558e-03</internalNodes>
          <leafValues>
            -5.3793889284133911e-01 1.5945215523242950e-01</leafValues></_>
        <_>
          <internalNodes>
            0 -1 180 -9.7304265946149826e-03</internalNodes>
          <leafValues>
            7.5422632694244385e-01 -1.4097514748573303e-01</leafValues></_>
        <_>
          <internalNodes>
            0 -1 60 -7.2178700938820839e-03</internalNodes>
          <leafValues>
            -6.2298256158828735e-01 1.7683751881122589e-01</leafValues></_>
        <_>
          <internalNodes>
            0 -1 57 4.9885049462318420e-02</internalNodes>
          <leafValues>
            1.0262995213270187e-01 -6.9156217575073242e-01</leafValues></_>
        <_>
          <internalNodes>
            0 -1 85 -3.5454321186989546e-04</internalNodes>
          <leafValues>
            -7.2042131423950195e-01 9.3610256910324097e-02</leafValues></_>
        <_>
          <internalNodes>
            0 -1 111 -9.7486254526302218e-04</internalNodes>
          <leafValues>
            3.2162380218505859e-01 -2.3777146637439728e-01</leafValues></_>
        <_>
          <internalNodes>
            0 -1 149 9.1212283587083220e-04</internalNodes>
          <leafValues>
            1.0922633856534958e-01 -8.1519031524658203e-01</leafValues></_>
        <_>
          <internalNodes>
            0 -1 76 -8.4597885143011808e-04</internalNodes>
          <leafValues>
            3.2084399461746216e-01 -2.5535652041435242e-01</leafValues></_></weakClassifiers></_></stages>
  <features>
    <_>
      <rects>
        <_>
          0 11 4 24 -1.</_>
        <_>
          2 11 2 24 2.</_></rects>
      <tilted>0</tilted></_>
    <_>
      <rects>
        <_>
          0 11 4 29 -1.</_>
        <_>
          2 11 2 29 2.</_></rects>
      <tilted>0</tilted></_>
    <_>
      <rects>
        <_>
          0 13 4 24 -1.</_>
        <_>
          2 13 2 24 2.</_></rects>
      <tilted>0</tilted></_>
    <_>
      <rects>
        <_>
          0 15 12 30 -1.</_>
        <_>
          6 15 6 30 2.</_></rects>
      <tilted>0</tilted></_>
    <_>
      <rects>
        <_>
          0 16 9 13 -1.</_>
        <_>
          3 16 3 13 3.</_></rects>
      <tilted>0</tilted></_>
    <_>
      <rects>
        <_>
          0 16 10 23 -1.</_>
        <_>
          5 16 5 23 2.</_></rects>
      <tilted>0</tilted></_>
    <_>
      <rects>
        <_>
          0 18 8 11 -1.</_>
        <_>
          4 18 4 11 2.</_></rects>
      <tilted>0</tilted></_>
    <_>
      <rects>
        <_>
          1 0 46 16 -1.</_>
        <_>
          1 8 46 8 2.</_></rects>
      <tilted>0</tilted></_>
    <_>
      <rects>
        <_>
          1 21 4 18 -1.</_>
        <_>
          1 21 2 9 2.</_>
        <_>
          3 30 2 9 2.</_></rects>
      <tilted>0</tilted></_>
    <_>
      <rects>
        <_>
          2 27 4 7 -1.</_>
        <_>
          4 27 2 7 2.</_></rects>
      <tilted>0</tilted></_>
    <_>
      <rects>
        <_>
          2 30 12 8 -1.</_>
        <_>
          6 30 4 8 3.</_></rects>
      <tilted>0</tilted></_>
    <_>
      <rects>
        <_>
          3 27 12 17 -1.</_>
        <_>
          9 27 6 17 2.</_></rects>
      <tilted>0</tilted></_>
    <_>
      <rects>
        <_>
          4 23 15 17 -1.</_>
        <_>
          9 23 5 17 3.</_></rects>
      <tilted>0</tilted></_>
    <_>
      <rects>
        <_>
          5 7 9 17 -1.</_>
        <_>
          8 7 3 17 3.</_></rects>
      <tilted>0</tilted></_>
    <_>
      <rects>
        <_>
          5 13 34 22 -1.</_>
        <_>
          5 24 34 11 2.</_></rects>
      <tilted>0</tilted></_>
    <_>
      <rects>
        <_>
          5 24 8 5 -1.</_>
        <_>
          9 24 4 5 2.</_></rects>
      <tilted>0</tilted></_>
    <_>
      <rects>
        <_>
          6 24 8 2 -1.</_>
        <_>
          10 24 4 2 2.</_></rects>
      <tilted>0</tilted></_>
    <_>
      <rects>
        <_>
          6 25 18 4 -1.</_>
        <_>
          12 25 6 4 3.</_></rects>
      <tilted>0</tilted></_>
    <_>
      <rects>
        <_>
          7 15 18 16 -1.</_>
        <_>
          16 15 9 16 2.</_></rects>
      <tilted>0</tilted></_>
    <_>
      <rects>
        <_>
          7 16 27 17 -1.</_>
        <_>
          16 16 9 17 3.</_></rects>
      <tilted>0</tilted></_>
    <_>
      <rects>
        <_>
          7 19 32 11 -1.</_>
        <_>
          23 19 16 11 2.</_></rects>
      <tilted>0</tilted></_>
    <_>
      <rects>
        <_>
          7 23 12 8 -1.</_>
        <_>
          11 23 4 8 3.</_></rects>
      <tilted>0</tilted></_>
    <_>
      <rects>
        <_>
          7 25 8 4 -1.</_>
        <_>
          11 25 4 4 2.</_></rects>
      <tilted>0</tilted></_>
    <_>
      <rects>
        <_>
          7 26 10 3 -1.</_>
        <_>
          12 26 5 3 2.</_></rects>
      <tilted>0</tilted></_>
    <_>
      <rects>
        <_>
          8 11 34 26 -1.</_>
        <_>
          8 24 34 13 2.</_></rects>
      <tilted>0</tilted></_>
    <_>
      <rects>
        <_>
          8 13 27 15 -1.</_>
        <_>
          17 13 9 15 3.</_></rects>
      <tilted>0</tilted></_>
    <_>
      <rects>
        <_>
          8 16 26 16 -1.</_>
        <_>
          21 16 13 16 2.</_></rects>
      <tilted>0</tilted></_>
    <_>
      <rects>
        <_>
          8 17 18 12 -1.</_>
        <_>
          17 17 9 12 2.</_></rects>
      <tilted>0</tilted></_>
    <_>
      <rects>
        <_>
          8 18 36 10 -1.</_>
        <_>
          26 18 18 10 2.</_></rects>
      <tilted>0</tilted></_>
    <_>
      <rects>
        <_>
          8 19 33 16 -1.</_>
        <_>
          8 27 33 8 2.</_></rects>
      <tilted>0</tilted></_>
    <_>
      <rects>
        <_>
          8 25 8 4 -1.</_>
        <_>
          12 25 4 4 2.</_></rects>
      <tilted>0</tilted></_>
    <_>
      <rects>
        <_>
          8 25 10 4 -1.</_>
        <_>
          13 25 5 4 2.</_></rects>
      <tilted>0</tilted></_>
    <_>
      <rects>
        <_>
          9 12 9 5 -1.</_>
        <_>
          12 12 3 5 3.</_></rects>
      <tilted>0</tilted></_>
    <_>
      <rects>
        <_>
          9 17 16 12 -1.</_>
        <_>
          17 17 8 12 2.</_></rects>
      <tilted>0</tilted></_>
    <_>
      <rects>
        <_>
          9 18 12 4 -1.</_>
        <_>
          13 18 4 4 3.</_></rects>
      <tilted>0</tilted></_>
    <_>
      <rects>
        <_>
          9 20 24 11 -1.</_>
        <_>
          21 20 12 11 2.</_></rects>
      <tilted>0</tilted></_>
    <_>
      <rects>
        <_>
          9 22 18 11 -1.</_>
        <_>
          15 22 6 11 3.</_></rects>
      <tilted>0</tilted></_>
    <_>
      <rects>
        <_>
          9 25 12 7 -1.</_>
        <_>
          13 25 4 7 3.</_></rects>
      <tilted>0</tilted></_>
    <_>
      <rects>
        <_>
          9 25 10 4 -1.</_>
        <_>
          14 25 5 4 2.</_></rects>
      <tilted>0</tilted></_>
    <_>
      <rects>
        <_>
          9 25 15 4 -1.</_>
        <_>
          14 25 5 4 3.</_></rects>
      <tilted>0</tilted></_>
    <_>
      <rects>
        <_>
          9 27 18 4 -1.</_>
        <_>
          15 27 6 4 3.</_></rects>
      <tilted>0</tilted></_>
    <_>
      <rects>
        <_>
          10 10 9 10 -1.</_>
        <_>
          13 10 3 10 3.</_></rects>
      <tilted>0</tilted></_>
    <_>
      <rects>
        <_>
          10 11 9 22 -1.</_>
        <_>
          13 11 3 22 3.</_></rects>
      <tilted>0</tilted></_>
    <_>
      <rects>
        <_>
          10 15 30 13 -1.</_>
        <_>
          25 15 15 13 2.</_></rects>
      <tilted>0</tilted></_>
    <_>
      <rects>
        <_>
          10 19 33 13 -1.</_>
        <_>
          21 19 11 13 3.</_></rects>
      <tilted>0</tilted></_>
    <_>
      <rects>
        <_>
          10 26 10 4 -1.</_>
        <_>
          15 26 5 4 2.</_></rects>
      <tilted>0</tilted></_>
    <_>
      <rects>
        <_>
          11 11 26 12 -1.</_>
        <_>
          11 17 26 6 2.</_></rects>
      <tilted>0</tilted></_>
    <_>
      <rects>
        <_>
          11 12 20 22 -1.</_>
        <_>
          21 12 10 22 2.</_></rects>
      <tilted>0</tilted></_>
    <_>
      <rects>
        <_>
          11 13 10 18 -1.</_>
        <_>
          11 22 10 9 2.</_></rects>
      <tilted>0</tilted></_>
    <_>
      <rects>
        <_>
          11 13 33 16 -1.</_>
        <_>
          22 13 11 16 3.</_></rects>
      <tilted>0</tilted></_>
    <_>
      <rects>
        <_>
          11 15 16 15 -1.</_>
        <_>
          19 15 8 15 2.</_></rects>
      <tilted>0</tilted></_>
    <_>
      <rects>
        <_>
          11 15 24 17 -1.</_>
        <_>
          23 15 12 17 2.</_></rects>
      <tilted>0</tilted></_>
    <_>
      <rects>
        <_>
          11 16 24 14 -1.</_>
        <_>
          23 16 12 14 2.</_></rects>
      <tilted>0</tilted></_>
    <_>
      <rects>
        <_>
          11 18 27 16 -1.</_>
        <_>
          11 26 27 8 2.</_></rects>
      <tilted>0</tilted></_>
    <_>
      <rects>
        <_>
          11 21 18 4 -1.</_>
        <_>
          17 21 6 4 3.</_></rects>
      <tilted>0</tilted></_>
    <_>
      <rects>
        <_>
          11 27 28 5 -1.</_>
        <_>
          25 27 14 5 2.</_></rects>
      <tilted>0</tilted></_>
    <_>
      <rects>
        <_>
          11 29 22 4 -1.</_>
        <_>
          22 29 11 4 2.</_></rects>
      <tilted>0</tilted></_>
    <_>
      <rects>
        <_>
          12 8 24 28 -1.</_>
        <_>
          24 8 12 28 2.</_></rects>
      <tilted>0</tilted></_>
    <_>
      <rects>
        <_>
          12 10 6 17 -1.</_>
        <_>
          14 10 2 17 3.</_></rects>
      <tilted>0</tilted></_>
    <_>
      <rects>
        <_>
          12 11 32 21 -1.</_>
        <_>
          12 18 32 7 3.</_></rects>
      <tilted>0</tilted></_>
    <_>
      <rects>
        <_>
          12 13 24 11 -1.</_>
        <_>
          24 13 12 11 2.</_></rects>
      <tilted>0</tilted></_>
    <_>
      <rects>
        <_>
          12 15 13 18 -1.</_>
        <_>
          12 24 13 9 2.</_></rects>
      <tilted>0</tilted></_>
    <_>
      <rects>
        <_>
          12 15 28 17 -1.</_>
        <_>
          26 15 14 17 2.</_></rects>
      <tilted>0</tilted></_>
    <_>
      <rects>
        <_>
          12 18 23 16 -1.</_>
        <_>
          12 26 23 8 2.</_></rects>
      <tilted>0</tilted></_>
    <_>
      <rects>
        <_>
          12 19 14 12 -1.</_>
        <_>
          19 19 7 12 2.</_></rects>
      <tilted>0</tilted></_>
    <_>
      <rects>
        <_>
          12 25 7 8 -1.</_>
        <_>
          12 29 7 4 2.</_></rects>
      <tilted>0</tilted></_>
    <_>
      <rects>
        <_>
          12 28 8 6 -1.</_>
        <_>
          16 28 4 6 2.</_></rects>
      <tilted>0</tilted></_>
    <_>
      <rects>
        <_>
          12 28 24 5 -1.</_>
        <_>
          24 28 12 5 2.</_></rects>
      <tilted>0</tilted></_>
    <_>
      <rects>
        <_>
          13 11 9 18 -1.</_>
        <_>
          16 11 3 18 3.</_></rects>
      <tilted>0</tilted></_>
    <_>
      <rects>
        <_>
          13 13 11 24 -1.</_>
        <_>
          13 25 11 12 2.</_></rects>
      <tilted>0</tilted></_>
    <_>
      <rects>
        <_>
          13 14 24 21 -1.</_>
        <_>
          25 14 12 21 2.</_></rects>
      <tilted>0</tilted></_>
    <_>
      <rects>
        <_>
          13 20 18 10 -1.</_>
        <_>
          19 20 6 10 3.</_></rects>
      <tilted>0</tilted></_>
    <_>
      <rects>
        <_>
          13 29 18 4 -1.</_>
        <_>
          22 29 9 4 2.</_></rects>
      <tilted>0</tilted></_>
    <_>
      <rects>
        <_>
          14 9 9 9 -1.</_>
        <_>
          17 9 3 9 3.</_></rects>
      <tilted>0</tilted></_>
    <_>
      <rects>
        <_>
          14 12 23 10 -1.</_>
        <_>
          14 17 23 5 2.</_></rects>
      <tilted>0</tilted></_>
    <_>
      <rects>
        <_>
          14 13 12 24 -1.</_>
        <_>
          14 25 12 12 2.</_></rects>
      <tilted>0</tilted></_>
    <_>
      <rects>
        <_>
          14 14 9 9 -1.</_>
        <_>
          14 17 9 3 3.</_></rects>
      <tilted>0</tilted></_>
    <_>
      <rects>
        <_>
          14 15 30 13 -1.</_>
        <_>
          24 15 10 13 3.</_></rects>
      <tilted>0</tilted></_>
    <_>
      <rects>
        <_>
          14 23 4 11 -1.</_>
        <_>
          16 23 2 11 2.</_></rects>
      <tilted>0</tilted></_>
    <_>
      <rects>
        <_>
          14 28 18 5 -1.</_>
        <_>
          23 28 9 5 2.</_></rects>
      <tilted>0</tilted></_>
    <_>
      <rects>
        <_>
          14 28 24 5 -1.</_>
        <_>
          26 28 12 5 2.</_></rects>
      <tilted>0</tilted></_>
    <_>
      <rects>
        <_>
          15 13 9 6 -1.</_>
        <_>
          18 13 3 6 3.</_></rects>
      <tilted>0</tilted></_>
    <_>
      <rects>
        <_>
          15 13 9 10 -1.</_>
        <_>
          18 13 3 10 3.</_></rects>
      <tilted>0</tilted></_>
    <_>
      <rects>
        <_>
          15 14 9 4 -1.</_>
        <_>
          18 14 3 4 3.</_></rects>
      <tilted>0</tilted></_>
    <_>
      <rects>
        <_>
          15 16 27 16 -1.</_>
        <_>
          24 16 9 16 3.</_></rects>
      <tilted>0</tilted></_>
    <_>
      <rects>
        <_>
          15 19 3 4 -1.</_>
        <_>
          16 19 1 4 3.</_></rects>
      <tilted>0</tilted></_>
    <_>
      <rects>
        <_>
          15 28 10 8 -1.</_>
        <_>
          15 32 10 4 2.</_></rects>
      <tilted>0</tilted></_>
    <_>
      <rects>
        <_>
          15 28 13 8 -1.</_>
        <_>
          15 32 13 4 2.</_></rects>
      <tilted>0</tilted></_>
    <_>
      <rects>
        <_>
          16 10 20 21 -1.</_>
        <_>
          16 17 20 7 3.</_></rects>
      <tilted>0</tilted></_>
    <_>
      <rects>
        <_>
          16 12 10 26 -1.</_>
        <_>
          16 25 10 13 2.</_></rects>
      <tilted>0</tilted></_>
    <_>
      <rects>
        <_>
          16 13 11 24 -1.</_>
        <_>
          16 25 11 12 2.</_></rects>
      <tilted>0</tilted></_>
    <_>
      <rects>
        <_>
          16 19 18 8 -1.</_>
        <_>
          22 19 6 8 3.</_></rects>
      <tilted>0</tilted></_>
    <_>
      <rects>
        <_>
          16 20 3 15 -1.</_>
        <_>
          17 20 1 15 3.</_></rects>
      <tilted>0</tilted></_>
    <_>
      <rects>
        <_>
          16 23 3 12 -1.</_>
        <_>
          17 23 1 12 3.</_></rects>
      <tilted>0</tilted></_>
    <_>
      <rects>
        <_>
          16 23 20 10 -1.</_>
        <_>
          26 23 10 10 2.</_></rects>
      <tilted>0</tilted></_>
    <_>
      <rects>
        <_>
          16 25 4 8 -1.</_>
        <_>
          16 29 4 4 2.</_></rects>
      <tilted>0</tilted></_>
    <_>
      <rects>
        <_>
          16 25 11 10 -1.</_>
        <_>
          16 30 11 5 2.</_></rects>
      <tilted>0</tilted></_>
    <_>
      <rects>
        <_>
          16 26 6 8 -1.</_>
        <_>
          16 30 6 4 2.</_></rects>
      <tilted>0</tilted></_>
    <_>
      <rects>
        <_>
          16 26 8 8 -1.</_>
        <_>
          16 30 8 4 2.</_></rects>
      <tilted>0</tilted></_>
    <_>
      <rects>
        <_>
          16 27 10 14 -1.</_>
        <_>
          16 34 10 7 2.</_></rects>
      <tilted>0</tilted></_>
    <_>
      <rects>
        <_>
          16 28 4 4 -1.</_>
        <_>
          18 28 2 4 2.</_></rects>
      <tilted>0</tilted></_>
    <_>
      <rects>
        <_>
          16 28 27 4 -1.</_>
        <_>
          25 28 9 4 3.</_></rects>
      <tilted>0</tilted></_>
    <_>
      <rects>
        <_>
          16 28 10 10 -1.</_>
        <_>
          16 33 10 5 2.</_></rects>
      <tilted>0</tilted></_>
    <_>
      <rects>
        <_>
          16 29 21 3 -1.</_>
        <_>
          23 29 7 3 3.</_></rects>
      <tilted>0</tilted></_>
    <_>
      <rects>
        <_>
          16 29 16 4 -1.</_>
        <_>
          24 29 8 4 2.</_></rects>
      <tilted>0</tilted></_>
    <_>
      <rects>
        <_>
          16 29 11 10 -1.</_>
        <_>
          16 34 11 5 2.</_></rects>
      <tilted>0</tilted></_>
    <_>
      <rects>
        <_>
          16 30 24 18 -1.</_>
        <_>
          16 39 24 9 2.</_></rects>
      <tilted>0</tilted></_>
    <_>
      <rects>
        <_>
          17 1 26 6 -1.</_>
        <_>
          17 4 26 3 2.</_></rects>
      <tilted>0</tilted></_>
    <_>
      <rects>
        <_>
          17 8 8 14 -1.</_>
        <_>
          17 15 8 7 2.</_></rects>
      <tilted>0</tilted></_>
    <_>
      <rects>
        <_>
          17 9 12 30 -1.</_>
        <_>
          17 24 12 15 2.</_></rects>
      <tilted>0</tilted></_>
    <_>
      <rects>
        <_>
          17 11 11 26 -1.</_>
        <_>
          17 24 11 13 2.</_></rects>
      <tilted>0</tilted></_>
    <_>
      <rects>
        <_>
          17 18 5 9 -1.</_>
        <_>
          17 21 5 3 3.</_></rects>
      <tilted>0</tilted></_>
    <_>
      <rects>
        <_>
          17 25 8 8 -1.</_>
        <_>
          17 29 8 4 2.</_></rects>
      <tilted>0</tilted></_>
    <_>
      <rects>
        <_>
          17 26 24 6 -1.</_>
        <_>
          29 26 12 6 2.</_></rects>
      <tilted>0</tilted></_>
    <_>
      <rects>
        <_>
          17 27 19 18 -1.</_>
        <_>
          17 33 19 6 3.</_></rects>
      <tilted>0</tilted></_>
    <_>
      <rects>
        <_>
          17 28 20 6 -1.</_>
        <_>
          27 28 10 6 2.</_></rects>
      <tilted>0</tilted></_>
    <_>
      <rects>
        <_>
          17 29 18 5 -1.</_>
        <_>
          26 29 9 5 2.</_></rects>
      <tilted>0</tilted></_>
    <_>
      <rects>
        <_>
          18 8 30 20 -1.</_>
        <_>
          28 8 10 20 3.</_></rects>
      <tilted>0</tilted></_>
    <_>
      <rects>
        <_>
          18 10 13 34 -1.</_>
        <_>
          18 27 13 17 2.</_></rects>
      <tilted>0</tilted></_>
    <_>
      <rects>
        <_>
          18 13 9 6 -1.</_>
        <_>
          21 13 3 6 3.</_></rects>
      <tilted>0</tilted></_>
    <_>
      <rects>
        <_>
          18 13 10 16 -1.</_>
        <_>
          18 21 10 8 2.</_></rects>
      <tilted>0</tilted></_>
    <_>
      <rects>
        <_>
          18 14 9 4 -1.</_>
        <_>
          21 14 3 4 3.</_></rects>
      <tilted>0</tilted></_>
    <_>
      <rects>
        <_>
          18 14 12 26 -1.</_>
        <_>
          18 27 12 13 2.</_></rects>
      <tilted>0</tilted></_>
    <_>
      <rects>
        <_>
          18 18 24 15 -1.</_>
        <_>
          26 18 8 15 3.</_></rects>
      <tilted>0</tilted></_>
    <_>
      <rects>
        <_>
          18 19 14 17 -1.</_>
        <_>
          25 19 7 17 2.</_></rects>
      <tilted>0</tilted></_>
    <_>
      <rects>
        <_>
          18 26 8 3 -1.</_>
        <_>
          22 26 4 3 2.</_></rects>
      <tilted>0</tilted></_>
    <_>
      <rects>
        <_>
          18 26 18 7 -1.</_>
        <_>
          27 26 9 7 2.</_></rects>
      <tilted>0</tilted></_>
    <_>
      <rects>
        <_>
          18 27 4 6 -1.</_>
        <_>
          20 27 2 6 2.</_></rects>
      <tilted>0</tilted></_>
    <_>
      <rects>
        <_>
          18 27 20 7 -1.</_>
        <_>
          28 27 10 7 2.</_></rects>
      <tilted>0</tilted></_>
    <_>
      <rects>
        <_>
          18 27 12 18 -1.</_>
        <_>
          18 33 12 6 3.</_></rects>
      <tilted>0</tilted></_>
    <_>
      <rects>
        <_>
          18 28 9 10 -1.</_>
        <_>
          18 33 9 5 2.</_></rects>
      <tilted>0</tilted></_>
    <_>
      <rects>
        <_>
          18 29 16 6 -1.</_>
        <_>
          26 29 8 6 2.</_></rects>
      <tilted>0</tilted></_>
    <_>
      <rects>
        <_>
          18 30 18 4 -1.</_>
        <_>
          24 30 6 4 3.</_></rects>
      <tilted>0</tilted></_>
    <_>
      <rects>
        <_>
          19 11 8 24 -1.</_>
        <_>
          19 23 8 12 2.</_></rects>
      <tilted>0</tilted></_>
    <_>
      <rects>
        <_>
          19 12 12 7 -1.</_>
        <_>
          23 12 4 7 3.</_></rects>
      <tilted>0</tilted></_>
    <_>
      <rects>
        <_>
          19 17 3 19 -1.</_>
        <_>
          20 17 1 19 3.</_></rects>
      <tilted>0</tilted></_>
    <_>
      <rects>
        <_>
          19 26 8 8 -1.</_>
        <_>
          19 30 8 4 2.</_></rects>
      <tilted>0</tilted></_>
    <_>
      <rects>
        <_>
          19 28 9 10 -1.</_>
        <_>
          19 33 9 5 2.</_></rects>
      <tilted>0</tilted></_>
    <_>
      <rects>
        <_>
          19 29 8 10 -1.</_>
        <_>
          19 34 8 5 2.</_></rects>
      <tilted>0</tilted></_>
    <_>
      <rects>
        <_>
          20 9 13 14 -1.</_>
        <_>
          20 16 13 7 2.</_></rects>
      <tilted>0</tilted></_>
    <_>
      <rects>
        <_>
          20 12 9 6 -1.</_>
        <_>
          23 12 3 6 3.</_></rects>
      <tilted>0</tilted></_>
    <_>
      <rects>
        <_>
          20 12 9 12 -1.</_>
        <_>
          23 12 3 12 3.</_></rects>
      <tilted>0</tilted></_>
    <_>
      <rects>
        <_>
          20 17 5 9 -1.</_>
        <_>
          20 20 5 3 3.</_></rects>
      <tilted>0</tilted></_>
    <_>
      <rects>
        <_>
          20 18 3 17 -1.</_>
        <_>
          21 18 1 17 3.</_></rects>
      <tilted>0</tilted></_>
    <_>
      <rects>
        <_>
          20 20 6 4 -1.</_>
        <_>
          22 20 2 4 3.</_></rects>
      <tilted>0</tilted></_>
    <_>
      <rects>
        <_>
          20 23 6 8 -1.</_>
        <_>
          20 27 6 4 2.</_></rects>
      <tilted>0</tilted></_>
    <_>
      <rects>
        <_>
          20 26 3 5 -1.</_>
        <_>
          21 26 1 5 3.</_></rects>
      <tilted>0</tilted></_>
    <_>
      <rects>
        <_>
          20 28 3 3 -1.</_>
        <_>
          21 28 1 3 3.</_></rects>
      <tilted>0</tilted></_>
    <_>
      <rects>
        <_>
          21 15 3 12 -1.</_>
        <_>
          22 15 1 12 3.</_></rects>
      <tilted>0</tilted></_>
    <_>
      <rects>
        <_>
          21 16 3 18 -1.</_>
        <_>
          22 16 1 18 3.</_></rects>
      <tilted>0</tilted></_>
    <_>
      <rects>
        <_>
          21 21 3 10 -1.</_>
        <_>
          22 21 1 10 3.</_></rects>
      <tilted>0</tilted></_>
    <_>
      <rects>
        <_>
          21 25 22 6 -1.</_>
        <_>
          32 25 11 6 2.</_></rects>
      <tilted>0</tilted></_>
    <_>
      <rects>
        <_>
          22 10 14 28 -1.</_>
        <_>
          22 24 14 14 2.</_></rects>
      <tilted>0</tilted></_>
    <_>
      <rects>
        <_>
          22 12 12 26 -1.</_>
        <_>
          22 25 12 13 2.</_></rects>
      <tilted>0</tilted></_>
    <_>
      <rects>
        <_>
          22 13 10 2 -1.</_>
        <_>
          22 13 5 1 2.</_>
        <_>
          27 14 5 1 2.</_></rects>
      <tilted>0</tilted></_>
    <_>
      <rects>
        <_>
          22 14 9 5 -1.</_>
        <_>
          25 14 3 5 3.</_></rects>
      <tilted>0</tilted></_>
    <_>
      <rects>
        <_>
          22 17 4 6 -1.</_>
        <_>
          22 20 4 3 2.</_></rects>
      <tilted>0</tilted></_>
    <_>
      <rects>
        <_>
          22 17 12 18 -1.</_>
        <_>
          22 26 12 9 2.</_></rects>
      <tilted>0</tilted></_>
    <_>
      <rects>
        <_>
          22 18 3 11 -1.</_>
        <_>
          23 18 1 11 3.</_></rects>
      <tilted>0</tilted></_>
    <_>
      <rects>
        <_>
          22 18 4 4 -1.</_>
        <_>
          22 20 4 2 2.</_></rects>
      <tilted>0</tilted></_>
    <_>
      <rects>
        <_>
          22 19 10 3 -1.</_>
        <_>
          27 19 5 3 2.</_></rects>
      <tilted>0</tilted></_>
    <_>
      <rects>
        <_>
          22 26 3 8 -1.</_>
        <_>
          22 30 3 4 2.</_></rects>
      <tilted>0</tilted></_>
    <_>
      <rects>
        <_>
          23 12 4 12 -1.</_>
        <_>
          23 16 4 4 3.</_></rects>
      <tilted>0</tilted></_>
    <_>
      <rects>
        <_>
          23 15 15 7 -1.</_>
        <_>
          28 15 5 7 3.</_></rects>
      <tilted>0</tilted></_>
    <_>
      <rects>
        <_>
          23 20 8 2 -1.</_>
        <_>
          27 20 4 2 2.</_></rects>
      <tilted>0</tilted></_>
    <_>
      <rects>
        <_>
          23 24 3 8 -1.</_>
        <_>
          24 24 1 8 3.</_></rects>
      <tilted>0</tilted></_>
    <_>
      <rects>
        <_>
          24 11 8 2 -1.</_>
        <_>
          24 11 4 1 2.</_>
        <_>
          28 12 4 1 2.</_></rects>
      <tilted>0</tilted></_>
    <_>
      <rects>
        <_>
          24 13 12 11 -1.</_>
        <_>
          28 13 4 11 3.</_></rects>
      <tilted>0</tilted></_>
    <_>
      <rects>
        <_>
          24 21 10 10 -1.</_>
        <_>
          24 21 5 5 2.</_>
        <_>
          29 26 5 5 2.</_></rects>
      <tilted>0</tilted></_>
    <_>
      <rects>
        <_>
          24 26 1 8 -1.</_>
        <_>
          24 30 1 4 2.</_></rects>
      <tilted>0</tilted></_>
    <_>
      <rects>
        <_>
          24 27 3 3 -1.</_>
        <_>
          25 27 1 3 3.</_></rects>
      <tilted>0</tilted></_>
    <_>
      <rects>
        <_>
          24 28 12 5 -1.</_>
        <_>
          30 28 6 5 2.</_></rects>
      <tilted>0</tilted></_>
    <_>
      <rects>
        <_>
          24 31 3 1 -1.</_>
        <_>
          25 31 1 1 3.</_></rects>
      <tilted>0</tilted></_>
    <_>
      <rects>
        <_>
          24 34 9 11 -1.</_>
        <_>
          27 34 3 11 3.</_></rects>
      <tilted>0</tilted></_>
    <_>
      <rects>
        <_>
          25 10 12 6 -1.</_>
        <_>
          29 10 4 6 3.</_></rects>
      <tilted>0</tilted></_>
    <_>
      <rects>
        <_>
          25 15 9 4 -1.</_>
        <_>
          28 15 3 4 3.</_></rects>
      <tilted>0</tilted></_>
    <_>
      <rects>
        <_>
          25 18 15 9 -1.</_>
        <_>
          30 18 5 9 3.</_></rects>
      <tilted>0</tilted></_>
    <_>
      <rects>
        <_>
          25 19 15 5 -1.</_>
        <_>
          30 19 5 5 3.</_></rects>
      <tilted>0</tilted></_>
    <_>
      <rects>
        <_>
          25 27 12 5 -1.</_>
        <_>
          31 27 6 5 2.</_></rects>
      <tilted>0</tilted></_>
    <_>
      <rects>
        <_>
          26 16 15 8 -1.</_>
        <_>
          31 16 5 8 3.</_></rects>
      <tilted>0</tilted></_>
    <_>
      <rects>
        <_>
          26 35 14 10 -1.</_>
        <_>
          26 35 7 5 2.</_>
        <_>
          33 40 7 5 2.</_></rects>
      <tilted>0</tilted></_>
    <_>
      <rects>
        <_>
          27 18 9 9 -1.</_>
        <_>
          30 18 3 9 3.</_></rects>
      <tilted>0</tilted></_>
    <_>
      <rects>
        <_>
          27 20 16 12 -1.</_>
        <_>
          27 20 8 6 2.</_>
        <_>
          35 26 8 6 2.</_></rects>
      <tilted>0</tilted></_>
    <_>
      <rects>
        <_>
          29 27 4 8 -1.</_>
        <_>
          29 31 4 4 2.</_></rects>
      <tilted>0</tilted></_>
    <_>
      <rects>
        <_>
          29 29 6 3 -1.</_>
        <_>
          31 29 2 3 3.</_></rects>
      <tilted>0</tilted></_>
    <_>
      <rects>
        <_>
          29 36 5 2 -1.</_>
        <_>
          29 37 5 1 2.</_></rects>
      <tilted>0</tilted></_>
    <_>
      <rects>
        <_>
          30 12 8 20 -1.</_>
        <_>
          30 22 8 10 2.</_></rects>
      <tilted>0</tilted></_>
    <_>
      <rects>
        <_>
          31 22 12 8 -1.</_>
        <_>
          35 22 4 8 3.</_></rects>
      <tilted>0</tilted></_>
    <_>
      <rects>
        <_>
          31 27 5 6 -1.</_>
        <_>
          31 30 5 3 2.</_></rects>
      <tilted>0</tilted></_>
    <_>
      <rects>
        <_>
          32 17 12 30 -1.</_>
        <_>
          32 17 6 15 2.</_>
        <_>
          38 32 6 15 2.</_></rects>
      <tilted>0</tilted></_>
    <_>
      <rects>
        <_>
          34 5 6 17 -1.</_>
        <_>
          37 5 3 17 2.</_></rects>
      <tilted>0</tilted></_>
    <_>
      <rects>
        <_>
          34 23 12 11 -1.</_>
        <_>
          38 23 4 11 3.</_></rects>
      <tilted>0</tilted></_>
    <_>
      <rects>
        <_>
          36 7 8 9 -1.</_>
        <_>
          40 7 4 9 2.</_></rects>
      <tilted>0</tilted></_>
    <_>
      <rects>
        <_>
          36 25 6 3 -1.</_>
        <_>
          39 25 3 3 2.</_></rects>
      <tilted>0</tilted></_>
    <_>
      <rects>
        <_>
          37 23 6 7 -1.</_>
        <_>
          40 23 3 7 2.</_></rects>
      <tilted>0</tilted></_>
    <_>
      <rects>
        <_>
          37 24 6 3 -1.</_>
        <_>
          40 24 3 3 2.</_></rects>
      <tilted>0</tilted></_>
    <_>
      <rects>
        <_>
          38 22 6 6 -1.</_>
        <_>
          41 22 3 6 2.</_></rects>
      <tilted>0</tilted></_>
    <_>
      <rects>
        <_>
          38 23 6 3 -1.</_>
        <_>
          41 23 3 3 2.</_></rects>
      <tilted>0</tilted></_>
    <_>
      <rects>
        <_>
          38 24 6 3 -1.</_>
        <_>
          41 24 3 3 2.</_></rects>
      <tilted>0</tilted></_>
    <_>
      <rects>
        <_>
          38 28 9 4 -1.</_>
        <_>
          41 28 3 4 3.</_></rects>
      <tilted>0</tilted></_>
    <_>
      <rects>
        <_>
          39 26 6 1 -1.</_>
        <_>
          42 26 3 1 2.</_></rects>
      <tilted>0</tilted></_>
    <_>
      <rects>
        <_>
          40 13 6 12 -1.</_>
        <_>
          43 13 3 12 2.</_></rects>
      <tilted>0</tilted></_>
    <_>
      <rects>
        <_>
          42 13 4 12 -1.</_>
        <_>
          44 13 2 12 2.</_></rects>
      <tilted>0</tilted></_>
    <_>
      <rects>
        <_>
          42 13 6 14 -1.</_>
        <_>
          42 13 3 7 2.</_>
        <_>
          45 20 3 7 2.</_></rects>
      <tilted>0</tilted></_>
    <_>
      <rects>
        <_>
          42 14 4 18 -1.</_>
        <_>
          42 14 2 9 2.</_>
        <_>
          44 23 2 9 2.</_></rects>
      <tilted>0</tilted></_>
    <_>
      <rects>
        <_>
          43 18 4 20 -1.</_>
        <_>
          43 18 2 10 2.</_>
        <_>
          45 28 2 10 2.</_></rects>
      <tilted>0</tilted></_>
    <_>
      <rects>
        <_>
          44 15 4 18 -1.</_>
        <_>
          44 21 4 6 3.</_></rects>
      <tilted>0</tilted></_>
    <_>
      <rects>
        <_>
          44 19 4 20 -1.</_>
        <_>
          44 19 2 10 2.</_>
        <_>
          46 29 2 10 2.</_></rects>
      <tilted>0</tilted></_>
    <_>
      <rects>
        <_>
          44 20 4 9 -1.</_>
        <_>
          46 20 2 9 2.</_></rects>
      <tilted>0</tilted></_>
    <_>
      <rects>
        <_>
          45 20 2 12 -1.</_>
        <_>
          46 20 1 12 2.</_></rects>
      <tilted>0</tilted></_>
    <_>
      <rects>
        <_>
          46 15 2 20 -1.</_>
        <_>
          47 15 1 20 2.</_></rects>
      <tilted>0</tilted></_>
    <_>
      <rects>
        <_>
          46 21 2 18 -1.</_>
        <_>
          47 21 1 18 2.</_></rects>
      <tilted>0</tilted></_></features></cascade>
</opencv_storage>
